-0.048784,-0.024054,-0.053762,-0.096506,-0.062264,-0.077331,-0.12964,-0.10108,-0.040384,0.029918,-0.034192,0.0088869,0.056084,0.09112,0.031293,-0.034792,-0.028011,-0.021067,0.0049923,0.091488,0.092037,0.088955,0.084283,0.060911,0.050443,0.073774
0.038474,-0.086179,-0.024995,0.028288,0.052165,0.0037454,-0.024467,0.0051894,-0.0064912,-0.12489,-0.059285,0.056748,0.059481,-0.0029802,-0.02908,-0.033572,-0.08604,-0.063384,-0.028708,0.079839,0.07773,-0.012523,0.012226,-0.012876,-0.042558,0.037975
-0.05408,-0.026673,-0.040972,-0.035356,-0.034585,-0.029656,-0.020236,-0.005424,-0.028885,0.004934,-0.047009,0.0084362,0.0246,0.046221,0.03045,0.041379,0.028111,-0.0368,0.023052,-0.023851,0.010975,0.022487,0.017954,-0.0065851,-0.045073,-0.025189
0.082296,0.091492,0.087923,0.043029,0.04381,0.080229,0.090563,0.064454,0.032335,-0.08928,0.05817,0.10168,0.092744,0.086985,-0.050426,-0.10803,-0.14129,-0.070486,-0.053167,-0.011303,-0.076314,-0.11961,-0.057476,-0.0081563,-0.027816,-0.024562
0.01468,-0.051689,0.002175,-0.020913,0.025682,0.033147,0.064662,0.02043,-0.011826,0.016115,-0.0016741,0.011801,-0.01267,0.030221,0.083682,0.036264,0.029216,0.035744,0.0080221,-0.0075479,0.0055235,0.031145,0.041841,0.053433,-0.0054504,0.024446
-0.017434,-0.03386,-0.041193,-0.053317,-0.036774,0.0027901,0.0053106,-0.03569,-0.035623,-0.035265,-0.016568,-0.014072,-0.020062,-0.005748,-0.018088,-0.019052,-0.033484,0.015257,0.0023569,0.022707,-0.0096406,0.025928,-0.0089882,-0.014823,-0.046367,-0.0066157
-0.021434,-0.048676,-0.04792,0.000544,-0.027109,0.027564,0.049755,0.028315,-0.0056497,-0.008084,-0.0034349,0.010976,0.024552,-0.00025209,0.025877,0.0095668,0.0019786,0.0089663,0.00078376,0.024215,-0.017652,-0.024438,-0.041156,0.0033634,-0.022472,-0.029801
0.05355,-0.0068756,0.019993,0.091634,0.14969,0.2133,0.17121,0.06046,-0.038776,0.0137,0.045358,0.010237,-0.003063,0.095225,0.11133,0.062481,-0.0048215,0.0025247,-0.037461,-0.18094,-0.30444,-0.28301,-0.17586,-0.089648,-0.025699,-0.18067
-0.20694,0.077212,-0.00040742,-0.081481,-0.17089,-0.25674,-0.23679,-0.14633,-0.026643,0.1481,0.068145,0.047805,-0.011794,-0.012944,-0.029514,0.028361,0.14761,0.15009,0.07192,0.050728,0.089821,0.11216,0.11653,0.109,0.13983,0.063303
-0.15119,0.23111,0.038733,-0.21959,-0.2631,-0.13778,-0.067283,0.00074749,0.14849,0.24071,0.23389,-0.030462,-0.064777,0.024289,-0.036488,-0.0665,0.026791,-0.016672,0.097347,0.063023,0.015511,-0.0059998,-0.12325,-0.2096,-0.16477,-0.071572
-0.017607,-0.05761,-0.035884,-0.0587,-0.020508,0.016913,0.031763,-0.028409,-0.096369,-0.032229,0.017391,-0.042924,-0.018464,0.0091839,0.044427,0.020423,-0.045379,-0.040835,0.0017111,-0.05955,-0.050721,0.0051755,0.016153,0.0092377,0.011876,-0.035867
0.054164,0.15194,0.20952,0.13266,0.04709,-0.070767,-0.075333,-0.0093221,0.11749,0.11953,0.12962,0.094309,-0.10719,-0.23331,-0.16928,0.049476,0.11944,0.10077,0.020556,-0.064249,-0.20189,-0.24597,-0.12645,0.043215,0.094506,-0.072152
0.046886,-0.031868,-0.026716,-0.0088622,-0.006703,0.0011877,0.080946,0.055777,0.033643,-0.034933,0.010016,0.058057,-0.031834,-0.05698,0.039241,0.057174,0.0076721,-0.034952,0.034289,0.044103,0.0057117,-0.012092,-0.00077944,0.0045776,-0.032295,0.015184
-0.0025858,0.030295,-0.003112,-0.02477,-0.011189,-0.00094652,-0.0083858,0.0090564,-0.026982,-0.020918,-0.0023083,-0.01803,0.015474,-0.018353,-0.032022,-0.0023913,-0.018488,0.001317,-0.001444,0.0038571,-0.012992,0.02416,-0.0061587,-0.022611,-0.038265,0.045187
-0.015875,0.047732,0.050585,0.013849,-0.12674,-0.13627,0.020775,0.095195,0.032916,-0.006856,0.13157,0.090492,-0.20044,-0.15921,0.016244,0.11813,0.034401,0.021887,0.03838,0.01007,-0.14449,-0.12302,0.0086965,0.068598,0.0066536,-0.018535
-0.032943,-0.15624,0.059851,0.11116,0.054063,0.10432,0.10976,-0.098266,-0.30305,-0.0022354,0.26715,0.096753,-0.12043,-0.019441,0.14905,-0.10802,-0.29199,0.13785,0.21832,0.029432,-0.16705,-0.10757,-0.031535,-0.047812,-0.011625,0.0072999
-0.31294,-0.24823,-0.20134,-0.16296,-0.11203,-0.069978,-0.08718,-0.10129,-0.20265,-0.10025,-0.057269,0.10252,0.093869,0.028189,0.034395,0.034307,-0.039379,0.018427,0.024886,0.063553,0.0082674,-0.054484,-0.0023258,0.059182,0.076878,-0.011722
-0.044527,-0.0015566,-0.026134,-0.035339,-0.017619,0.022777,0.063703,0.0094947,-0.067256,-0.025599,0.034608,0.0086742,-0.024904,-0.0095796,0.07519,-0.031382,-0.051862,0.015306,0.052329,0.052002,-0.017576,0.02081,0.030668,-0.015602,-0.0048383,0.022059
0.028322,-0.015798,0.049086,0.098798,0.072993,0.017982,-0.013895,-0.050103,-0.12532,-0.0019141,0.1071,0.035023,0.041372,-0.0091488,-0.066465,0.022726,-0.075048,-0.017455,0.10489,0.099695,0.079149,-0.017166,-0.072446,-0.1133,-0.16299,-0.030117
-0.13165,0.02453,0.094931,0.057014,-0.09862,-0.10957,-0.109,-0.14882,-0.11715,0.13815,0.06165,0.070254,0.0016866,-0.1012,-0.095399,-0.1358,-0.007723,0.088701,-0.01711,0.030264,0.10094,0.021834,-0.081408,0.0042589,0.12903,0.097968
-0.022978,0.02776,0.0010367,0.008581,-0.03179,-0.00066497,-0.03735,-0.0014164,-0.010781,-0.016175,-0.0018114,-0.030364,-0.024361,-0.038966,-0.051021,-0.042508,-0.029214,-0.046241,0.0076143,0.020304,-0.010689,-0.036683,-0.024928,-0.025927,-0.029289,-0.016344
-0.004596,0.0058197,0.057706,0.055854,-0.036168,-0.12237,-0.087304,-0.0062031,0.019578,-0.014458,0.0092367,0.061659,0.0014318,-0.12401,-0.10467,0.02799,0.024314,-0.003902,0.038716,0.039662,-0.0099952,-0.063536,-0.015946,0.0094834,0.023007,0.043385
-0.04373,-0.019065,0.061117,0.016479,0.0087421,-0.0078869,-0.04359,-0.043489,-0.081883,0.058942,0.089289,0.0018672,-0.040539,-0.0029636,0.056717,0.016667,-0.034257,0.084677,0.043436,-0.074256,-0.068982,-0.047426,0.058097,0.0070636,0.037051,0.01733
0.0031768,0.048545,0.04146,-0.0096239,-0.10088,-0.21554,-0.045898,0.10983,0.096996,-0.052077,0.012262,0.18964,0.059177,-0.17664,-0.062631,0.085563,0.01262,-0.081985,0.033155,0.21011,0.17069,0.028207,-0.048468,-0.064028,-0.077583,0.027649
-0.0064042,0.0070919,0.049673,-0.014572,-0.025899,-0.10959,-0.070954,0.0050701,0.012519,-0.059922,-0.0097102,0.089915,0.071594,0.0081814,-0.0263,-0.033454,-0.0074746,-0.08654,-0.05105,0.071866,0.15854,0.068325,-0.018255,-0.080419,-0.10096,-0.034555
-0.01916,-0.007028,-0.043256,-0.066231,-0.011944,-0.023974,-0.02427,0.03253,0.037978,0.01138,-0.061899,-0.017781,-0.0066991,-0.016644,-0.059875,0.047004,0.063237,0.0036371,-0.043703,0.010643,0.048849,0.017627,0.009253,0.052371,0.030814,0.042132
0.0026037,0.23405,0.14441,-0.082234,-0.18862,-0.17703,-0.11055,0.003636,0.13356,0.24484,0.19641,0.00965,-0.17784,-0.19479,-0.13585,-0.079081,0.069885,0.10383,0.11901,0.07955,-0.042025,-0.086713,-0.10971,-0.1077,-0.02377,-0.010667
-0.10713,-0.19674,-0.13423,0.063652,0.063943,0.0038842,-0.013718,0.037623,-0.032828,-0.24458,-0.1377,0.24235,0.20714,0.025398,0.02474,0.19977,0.043764,-0.15253,-0.14209,0.10273,0.081568,-0.0084123,0.014213,0.042479,-0.06576,-0.068043
0.010913,-0.045454,-0.0062982,-0.012541,-0.0014934,-0.012831,-0.0045858,-0.0021502,-0.025018,-0.050083,0.0032311,-0.030391,-0.0068913,-0.010104,-0.019447,0.0027115,-0.026758,-0.0096183,0.0054378,-0.0096436,0.030693,1.3611e-005,0.013199,0.0076261,-0.012136,0.0087583
-0.040312,-0.11009,-0.026949,0.0026392,-0.074468,0.00057961,0.039941,0.041278,-0.031548,-0.081717,-0.034997,-0.040477,-0.08787,0.030306,0.056754,0.086116,0.047081,-0.0034977,0.003823,-0.0070372,0.022389,0.04928,0.011487,0.010361,0.057015,0.067914
0.01082,0.015025,-0.018093,-0.0047921,0.041976,-0.0076008,-0.061247,-0.0035758,0.080382,0.021398,-0.022584,0.042723,0.061075,-0.010091,-0.083688,0.0059483,0.078748,0.023738,-0.014797,0.0033985,0.024176,-0.049729,-0.047818,-0.040232,-0.014415,-0.0040643
-0.03811,-0.0046828,0.032445,-0.025644,-0.046422,-0.053338,-0.040062,-0.0074854,0.029829,-0.024881,-0.030714,-0.0079942,-0.014191,-0.01645,-0.023326,-0.015108,-0.020382,-0.10421,0.013179,0.057584,0.12157,0.13596,0.13468,0.014398,-0.054689,0.081992
-0.031474,-0.0028485,-0.0057969,0.010593,0.015179,0.023344,0.0026339,-0.011982,0.021698,-0.016921,-0.011709,0.036171,0.011394,0.020716,0.072799,0.028664,0.015926,-0.027219,-0.029437,0.018551,-0.036053,0.01553,0.0075234,0.049829,-0.021764,0.0067116
-0.055475,-0.036447,0.013761,1.6702e-005,0.068989,0.059962,0.032888,-0.021757,-0.015985,0.02512,-0.011643,0.011491,0.065118,0.12921,0.022622,-0.011546,0.040461,-0.032708,-0.053913,-0.067102,-0.019512,0.037331,-0.01297,-0.021772,0.0054786,-0.043461
-0.025367,0.014446,-0.010867,-0.020594,0.041727,0.0060924,-0.00987,-0.0010418,0.015488,0.010891,0.011545,-0.043855,-0.044787,-0.03203,0.00016896,0.034477,0.0018088,0.081068,0.062112,-0.00018076,-0.0033621,0.0089831,0.052165,0.050388,0.036606,0.1043
0.015821,-0.066612,0.02285,0.092712,0.099691,0.040448,0.0091589,-0.024937,-0.091349,-0.11915,0.024175,0.12547,0.1083,0.013347,-0.0041973,-0.042971,-0.091866,-0.08043,0.025338,0.10366,0.084899,-0.035632,-0.057136,-0.059556,-0.065408,-0.074944
0.075847,0.13552,0.041284,-0.04234,-0.14513,-0.13829,0.021757,0.19548,0.21893,0.11117,0.084704,0.045901,-0.16741,-0.29862,-0.09333,0.11462,0.15652,0.049854,0.098283,0.077364,-0.047632,-0.15891,-0.19208,-0.043983,0.042311,-0.053243
0.072319,0.26175,0.18144,0.0086275,-0.084839,-0.17478,-0.10297,0.080652,0.25472,0.16217,-0.0063289,-0.11976,-0.1256,-0.13424,-0.034944,0.11403,0.2626,-0.03518,-0.12785,-0.14725,-0.11168,-0.093773,0.0069961,0.057382,0.04267,-0.07046
-0.017011,-0.038468,-0.019471,-0.042396,-0.0032833,0.053971,0.064608,0.00013286,-0.057177,0.010016,-0.0020723,-0.074922,0.022396,0.038663,0.026526,-0.079608,-0.041002,0.024509,-0.030749,-0.050866,0.045515,0.03141,-0.0049915,-0.011587,-0.041331,-0.0062383
0.16539,0.11901,0.12667,0.23036,0.21498,0.118,0.01427,0.029052,0.075454,0.092989,0.086603,0.11678,0.18773,0.045883,-0.16781,-0.14604,0.0022144,-0.03066,-0.042585,-0.012691,-0.013416,-0.11238,-0.24517,-0.23778,-0.074843,-0.15758
-0.014304,0.031251,0.0055488,0.015933,-0.063607,0.0035783,0.011108,0.011866,0.0041837,-0.0058797,0.040297,-0.0057747,-0.0047719,0.012901,0.073968,0.0012027,0.015257,0.025906,0.023431,0.0043646,-0.025033,-0.011644,0.029203,-0.029782,0.020561,-0.040304
-0.010396,0.012661,0.05138,-0.029491,-0.031789,-0.063115,-0.058903,-0.088559,-0.10344,0.014087,0.044296,0.054899,-0.031142,-0.027214,0.029588,-0.043964,-0.066839,0.029402,0.019401,0.0093874,0.011978,0.10238,0.048218,0.073455,0.028753,0.038225
-0.028289,0.014075,0.0011411,-0.027843,-0.026069,-0.0090564,0.0003125,-0.040935,-1.4933e-005,0.064896,-0.0037974,-0.03343,-0.06404,-0.033387,-0.0095985,-0.042724,-0.0087285,0.030825,-0.0043812,-0.031041,-0.050206,-0.05967,-0.042688,-0.02935,0.013328,-0.021089
-0.046802,-0.029299,-0.022473,-0.01934,0.017393,0.026439,0.004888,-0.0046689,-0.087038,0.031795,-0.02926,-0.021399,0.096529,0.039602,0.098525,0.066693,-0.035968,-0.053635,-0.10374,-0.072254,0.028908,0.10699,0.11801,0.034474,-0.037839,-0.078547
0.02894,-0.015171,-0.14109,-0.077406,0.056648,0.068089,0.085903,0.090824,0.064298,-0.12734,-0.29105,-0.17827,0.044235,0.080431,0.053205,0.069926,0.082249,-0.06426,-0.21788,-0.10266,0.055156,0.10314,0.10339,0.10909,0.047759,0.038423
-0.24793,-0.19945,-0.24484,-0.17954,-0.16861,-0.12614,-0.061275,-0.048085,-0.075614,0.014531,-0.043237,-0.043713,-0.025208,0.034877,0.086219,0.17026,0.15798,0.092245,0.11708,0.10583,0.095724,-0.013963,-0.02006,-0.0037738,0.075495,-0.0070863
0.068887,0.068433,0.055938,-0.034527,-0.11004,-0.13787,-0.036476,0.055752,0.051412,0.015022,0.029405,-0.065848,-0.14791,-0.22383,-0.13566,-0.065805,0.026336,0.086579,0.10177,0.089733,0.01675,-0.026506,-0.0010927,0.028355,0.047498,0.12304
0.0034197,0.072182,-0.12013,-0.14001,-0.13526,-0.090919,0.16104,0.34608,0.29083,0.082115,-0.068414,0.0056991,-0.037043,-0.090613,0.09578,0.33391,0.32385,-0.058242,-0.096892,-0.066767,-0.078627,-0.13741,-0.027963,0.06666,0.075184,-0.13286
-0.16553,-0.11384,-0.13873,-0.12685,0.032449,0.047337,0.043356,-0.0082746,-0.07471,-0.0051385,-0.034876,0.026002,0.20234,0.10663,0.082508,0.044515,0.011627,-0.0092406,0.018655,0.058394,0.081096,-0.018733,-0.010906,0.018895,-0.0028537,-0.025879
0.013587,-0.12745,-0.077489,-0.045978,0.043765,0.015949,0.056719,0.024029,-0.075939,-0.15922,-0.061989,0.017063,0.037983,-0.015335,-0.036494,0.022175,-0.078808,-0.037779,0.013794,0.035717,0.036829,0.028479,0.016059,0.0313,-0.041764,0.084335
0.039311,-0.013265,-0.022837,-0.015916,-0.022187,0.020571,0.044456,0.040643,-0.00056604,-0.066769,-0.043858,-0.038073,-0.073443,-0.063146,-0.011755,-0.032778,-0.070248,-0.0074424,-0.0027128,0.022686,-0.0055536,-0.024275,-0.032758,-0.014881,-0.052262,0.0061533
0.056713,0.074593,0.1755,0.13427,0.14453,0.13707,0.036051,-0.050526,-0.045696,-0.021879,0.06866,0.079617,0.084616,0.12643,0.10686,-0.12663,-0.18383,-0.18683,-0.153,-0.11252,-0.04685,-0.0069645,0.049811,-0.12474,-0.27058,-0.21209
0.020008,0.18425,0.096348,-0.12179,-0.12345,-0.020423,0.040157,0.016049,0.052642,0.23007,0.1624,-0.058889,-0.082835,0.049661,0.086545,-0.17835,-0.15895,0.036465,0.15718,0.079003,0.045875,0.037944,0.0006815,-0.20343,-0.2452,-0.040412
0.1175,-0.12355,-0.024803,0.04505,0.10373,0.22807,0.17911,-0.078922,-0.1952,-0.0025253,0.029517,-0.036544,-0.047625,0.13913,0.064917,-0.26167,-0.24015,0.083131,0.10968,0.04029,-0.0275,0.030659,-0.021964,-0.11046,-0.059274,0.031034
-0.019072,-0.017776,-0.0038436,-0.013277,-0.026646,-0.04316,0.0083015,0.015526,-0.022623,0.012941,0.0014411,0.027413,-0.032411,0.031899,0.014495,-0.0071901,0.031565,0.023974,0.013526,0.013917,0.028281,0.006126,-0.0024641,0.020921,-0.032646,-0.038811
-0.041923,0.00067046,-0.0069589,0.035878,0.065549,0.050554,-0.011917,-0.016971,0.029146,0.17179,0.045031,-0.014795,-0.021402,-0.057742,-0.171,-0.034202,0.20459,0.20278,0.10717,-0.044238,-0.10011,-0.23181,-0.24476,-0.051391,0.17705,-0.065869
0.072923,0.049509,0.25177,0.1805,0.032546,-0.013705,-0.017524,-0.11834,-0.11192,-0.14442,0.15115,0.13244,-0.075222,-0.040624,0.072008,-0.05882,-0.21442,-0.22271,-0.069357,-0.016409,0.014924,0.075314,0.12453,0.037643,-0.14379,-0.05308
0.26559,0.098099,0.21744,0.30149,0.1733,0.053703,0.049127,0.045558,0.029652,-0.10008,0.059606,0.17905,0.0040157,-0.1395,-0.12848,-0.12752,-0.12054,-0.038517,0.022568,0.057736,0.015775,-0.05892,-0.11136,-0.091815,-0.092483,0.0022768
0.019476,0.041973,0.047785,0.02094,-0.023589,-0.018966,-0.050182,0.010894,0.014863,0.022549,0.012494,0.015541,0.01279,-0.020171,-0.066006,0.02085,0.0010599,-0.041323,0.0020634,0.046025,-0.0049083,0.004714,0.0081752,-0.001581,-0.037938,0.014263
0.015694,0.019259,0.0031571,0.022196,0.011278,-0.017277,-0.0051863,-0.0077485,0.0035203,0.021164,-0.00059531,-0.01611,-0.0005433,0.016259,0.039462,-0.041047,-0.018086,-0.036709,-0.011742,-0.019649,-0.0088899,0.023017,-0.0029468,-0.050869,-0.026428,-0.040282
-0.042246,0.011181,-0.0010353,-0.031229,-0.050731,-0.052864,0.00047917,-0.013786,0.011506,0.01517,-0.0031795,-0.022902,-0.040641,-0.019777,0.029669,-0.02903,-0.0068947,0.0035768,-0.029678,-0.0041509,0.0054276,-0.0054292,0.014905,0.046931,-0.003014,0.032956
0.034708,0.042349,-0.037294,-0.073608,-0.068133,-0.051185,0.040605,0.059054,0.060984,0.086314,-0.017391,-0.04369,-0.039619,-0.087164,0.045075,0.056165,0.03788,0.048241,-0.021928,-0.082295,-0.081703,-0.070609,0.042958,0.092173,0.036967,-0.0028578
0.05907,-0.016243,0.011065,0.055578,0.11187,0.10093,0.070135,0.071848,0.018115,0.0051487,-0.057979,-0.0018127,0.070077,0.10624,0.07732,0.051672,0.095002,-0.052347,-0.14495,-0.18651,-0.1267,-0.054441,-0.00083097,-0.016725,0.0074651,-0.21076
0.018933,0.0076788,-0.0052621,0.0038449,0.034918,0.017782,0.014859,0.0088076,0.018466,0.014012,0.032585,0.031325,0.023652,0.02739,0.0067143,0.035533,0.026458,0.03603,5.7561e-005,0.0036076,0.018382,-0.036762,0.046777,0.049178,0.012853,0.011402
0.014695,0.024829,0.060992,0.094113,0.071668,-0.014358,-0.01502,0.043554,0.043012,-0.044851,-0.095438,0.072599,0.17217,0.078884,0.086211,0.025113,0.0018539,-0.095655,-0.13233,-0.14538,-0.068212,-0.03252,-0.073076,-0.093015,-0.083103,-0.13803
-0.015717,-0.0033827,-0.005377,-0.0060771,-0.012897,-0.011746,-0.030193,-0.0029137,0.0081418,0.0084996,0.026736,0.094115,0.030572,-0.0066589,0.00094673,0.027273,0.043165,0.0050905,0.017742,0.017243,0.019326,-0.034614,-0.059781,-0.0028398,0.021068,-0.049066
-0.073822,-0.066429,0.0072729,0.067045,0.023146,-0.10323,-0.17867,-0.18326,-0.10464,-0.12797,-0.086801,0.084536,0.22684,0.10833,-0.036674,-0.13268,-0.095948,-0.15781,-0.14358,0.083296,0.25714,0.3103,0.21512,0.054107,-0.066492,0.099143
0.0056543,0.040602,0.011185,-0.010233,-0.020009,-0.019323,0.025472,0.004511,-0.010651,0.034968,0.036838,0.012354,-0.018818,0.015867,0.056161,0.0025543,-0.018327,-0.009596,0.022035,-0.0067065,-0.030098,-0.0047546,-0.0086151,-0.040986,-0.01863,-0.041546
-0.073254,0.026776,0.039424,-0.030448,-0.11369,-0.17147,-0.10787,-0.036973,0.012224,0.13337,0.083855,-0.029434,-0.21918,-0.18625,-0.017135,0.12919,0.14544,0.19035,0.07802,-0.055361,-0.1294,-0.057158,0.14485,0.21815,0.23858,0.11348
-0.03352,-0.13501,0.10059,0.24693,0.17002,0.020978,-0.060096,-0.12805,-0.18684,-0.13683,0.13999,0.30889,0.14627,-0.038689,0.009333,0.077088,-0.10485,-0.21439,-0.031634,0.052718,-0.02331,-0.11029,-0.055607,-0.024843,-0.087698,-0.15959
-0.14552,-0.11886,-0.21848,-0.29711,-0.17554,-0.044022,0.022505,-0.015882,-0.017919,0.075008,-0.094083,-0.21263,-0.057089,0.049362,0.11789,0.071148,0.067697,0.05667,0.018839,-0.043266,0.0045887,0.092087,0.12238,0.1237,0.12263,0.10282
0.053035,-0.021236,-0.010306,0.02969,0.01756,0.063096,0.11369,0.10218,-0.00020324,-0.10416,-0.022599,-0.055023,-0.048071,0.0073743,0.086282,0.0095551,-0.13507,0.030962,0.045591,0.03362,-0.022028,-0.061202,-0.074928,-0.132,-0.1201,-0.0084746
-0.038163,-0.042564,-0.067546,-0.12032,-0.058662,0.046672,0.086557,0.061753,-0.026654,-0.010951,-0.062247,-0.087277,-0.061136,0.099658,0.14268,0.063753,-0.018025,-0.041125,-0.032955,-0.047283,0.026407,0.049092,0.11621,0.037063,-0.043343,0.065997
-0.015158,0.035614,0.019656,-0.040777,-0.16859,-0.049423,0.13497,0.1309,0.083306,-0.088051,0.0090581,-0.013087,-0.18806,0.032404,0.26111,0.14949,-0.097516,-0.12857,-0.086354,-0.055011,-0.066838,0.081084,0.21647,0.080511,-0.079336,-0.013288
-0.10586,-0.12039,-0.0099855,0.092984,-0.0073933,-0.13759,-0.17746,-0.12687,-0.1444,-0.080256,0.17885,0.3164,0.054049,-0.16872,-0.13377,-0.036134,-0.026768,0.070586,0.22271,0.28751,0.11724,-0.051064,-0.063941,-0.0098829,0.015678,0.079809
0.05414,0.10098,0.040824,-0.0094985,0.057281,0.11963,0.034816,-0.016496,0.052562,0.087926,0.025948,0.058718,0.085777,0.07908,-0.08447,-0.10759,0.016845,-0.031182,-0.025057,0.014395,0.020873,-0.092522,-0.17526,-0.18243,-0.080746,-0.11208
-0.031331,0.0018906,-0.017034,-0.033196,-0.063288,-0.043703,-0.048749,-0.038293,-0.0029608,-0.016988,0.017541,-0.0057877,-0.0021223,0.014446,-0.008513,-0.0027896,-0.033359,0.023268,0.027605,0.047756,0.022151,0.032671,0.056122,0.024272,0.012017,0.033637
0.01635,0.005792,0.040105,0.018726,0.022485,0.063392,0.025031,-0.023799,-0.049456,0.054848,0.031262,-0.019658,-0.015472,0.10921,0.014281,-0.018356,0.0087586,-0.042748,-0.081866,-0.15096,-0.07516,-0.068024,-0.065085,-0.11445,-0.085815,-0.15671
0.022898,0.21206,0.18523,0.086877,-0.023855,-0.17157,-0.20912,-0.088386,0.090806,0.20955,0.12321,-0.017778,-0.093113,-0.18977,-0.19054,-0.073569,0.12718,0.11711,0.019501,-0.073004,-0.095008,-0.11707,-0.084981,0.0033221,0.066532,-0.024152
-0.06152,-0.054621,0.039917,0.075628,0.017691,-0.11993,-0.13124,-0.15206,-0.12057,0.0035917,0.081928,0.081022,0.010669,-0.012403,-0.1446,-0.10472,-0.028498,0.10282,0.055198,0.021889,0.028665,0.036326,0.030068,0.046645,0.063895,0.061541
0.16758,-0.018389,-0.061425,-0.036021,-0.07046,0.011754,0.17759,0.26069,0.10076,-0.074725,0.052468,0.05223,-0.1063,-0.2675,-0.13835,0.049899,0.011083,0.08106,0.15568,0.16477,0.04471,-0.16029,-0.19903,-0.083826,-0.023573,0.033154
0.025343,-0.040914,-0.01565,0.038306,-0.02251,0.061211,0.087186,0.041249,-0.0062295,-0.1005,0.0055621,0.0039521,0.0023089,0.048621,0.096042,0.020514,-0.060596,-0.06267,-0.019521,0.039014,0.087878,0.032758,0.048659,-0.032614,-0.097848,-0.058249
-0.087555,0.071071,0.019672,-0.089019,-0.095332,-0.048932,-0.038434,-0.011835,0.041021,-0.0025481,0.02618,-0.064215,-0.089671,-0.0022884,0.0078717,-0.00096984,-0.021814,0.0016926,0.093148,0.017132,-0.042569,-0.029412,0.063978,0.014742,-0.044544,0.046207
-0.0023361,-0.0082976,-0.0094162,-0.0018276,0.029686,0.017718,-0.026677,0.060648,-0.00032985,-0.049379,-0.032127,0.0044408,0.030482,0.013979,0.023808,0.044391,0.022533,0.0025265,-0.0077322,-0.0011177,-0.0018411,-0.001795,-0.018831,0.068187,0.02164,0.063087
0.15725,-0.052215,-0.046447,-0.015739,0.065386,0.12796,0.25945,0.21401,0.071052,-0.0622,-0.1059,-0.1211,-0.068935,0.062843,0.2388,0.1669,0.0055661,-0.11313,-0.16197,-0.1207,-0.12389,-0.028981,0.058469,0.049101,-0.04471,-0.11733
0.1738,0.0024637,0.071763,0.13013,0.1903,0.18675,0.11685,0.099052,0.050107,-0.024693,-0.040671,-0.019455,-0.018074,-0.0077174,-0.03938,-0.088627,-0.052746,-0.026843,-0.0023284,-0.02352,-0.073967,-0.090443,-0.043352,-0.094647,-0.041177,-0.044094
-0.011953,0.13898,0.10573,-0.0010394,0.00015478,-0.011486,-0.053579,-0.091444,0.033986,0.23763,-0.033263,-0.18753,-0.062762,0.059808,-0.037936,-0.030227,0.12668,0.09823,-0.16112,-0.29827,-0.20161,-0.04072,-0.018142,0.022942,0.10298,-0.10667
-0.081198,-0.042513,-0.026039,-0.030711,-0.021886,-0.011287,-0.0092044,-0.056738,-0.043328,-0.0059399,-0.0029823,0.011212,-0.010865,0.015635,0.010419,-0.0032833,-0.030622,0.0068325,0.016708,0.0039854,-0.010102,-0.041592,0.024738,-0.018862,0.010806,-0.033828
-0.0091857,-0.04142,-0.1232,-0.15985,-0.090615,0.01163,-0.0044668,-0.054264,-0.050355,0.13596,0.11842,-0.068745,-0.14386,-0.10955,-0.086966,-0.07102,0.069904,0.30976,0.29182,0.13192,-0.045869,-0.09191,-0.044605,0.087857,0.22917,0.2075
-0.0083808,-0.063497,-0.12138,-0.17545,-0.027459,0.15567,0.14501,0.087201,0.0078445,-0.0024404,-0.1075,-0.23454,-0.013293,0.19112,0.038108,-0.032127,0.039114,0.04573,-0.028615,-0.047256,0.069734,0.14259,0.019391,-0.03592,0.047706,0.076492
0.15876,0.23725,0.14905,0.017164,-0.060511,-0.050501,0.0028858,0.14077,0.26415,0.060853,-0.014949,-0.12612,-0.14926,-0.078368,-0.033894,0.08127,0.097107,-0.13904,-0.12157,-0.12923,-0.11332,-0.083424,-0.0051661,-0.0063947,-0.024184,-0.075452
0.069171,0.043421,0.095263,0.050404,0.037144,-0.0016988,0.032737,0.0088378,0.023926,-0.014737,0.037817,0.040708,-0.035653,-0.046731,0.019661,0.015385,-0.015715,0.0075643,0.030307,-0.00033804,-4.8282e-005,-0.019472,0.06789,0.034134,0.019892,0.040122
-0.013833,-0.030013,-0.090436,-0.13604,-0.13379,-0.078875,-0.025869,-0.0054955,-0.0033944,-0.12936,-0.082114,0.057325,0.090119,0.013267,-0.10246,-0.15231,-0.13832,-0.0037613,0.15541,0.26504,0.28364,0.20091,0.042108,-0.044714,-0.066902,0.20313
-0.022914,-0.031521,-0.037657,-0.1343,-0.17596,-0.040236,0.16266,0.1107,-0.034174,0.022146,0.056617,-0.068759,-0.29763,-0.051443,0.27334,0.16829,-0.00073259,0.045608,0.044557,-0.063614,-0.21483,-0.11168,0.07788,0.12271,0.054101,-0.020251
-0.019182,0.019761,0.033432,-0.060529,-0.12745,-0.070847,0.061025,0.11613,0.11197,0.084959,0.11015,0.021991,-0.15334,-0.18662,0.010439,0.093707,0.073575,0.047792,0.095887,0.089405,-0.090813,-0.17985,-0.10892,-0.071224,-0.0017893,-0.040288
0.093895,0.075557,0.12604,0.15147,0.14129,0.056545,0.033731,0.017532,0.034934,-0.13252,0.037156,0.095736,0.094898,0.077343,0.058987,-0.093376,-0.20447,-0.33053,-0.17554,-0.035281,0.01134,0.0733,0.040796,-0.14256,-0.32719,-0.13646
0.024897,0.046797,0.031001,-0.067536,-0.11063,-0.040524,0.089639,0.15271,0.053508,0.0010339,0.018805,-0.060949,-0.16728,-0.13787,0.030272,0.11293,0.048389,0.0047527,-0.044285,-0.087242,-0.10171,-0.044879,-0.020037,0.045265,0.010438,-0.056956
-0.079186,-0.035028,-0.018392,-0.040389,-0.080747,-0.025586,-0.042446,-0.012395,0.019605,-0.024798,0.015486,0.053443,-0.01385,-0.024763,0.054374,0.032357,0.018334,-0.021056,-0.0028368,-0.024718,-0.0035625,0.0028871,-0.014941,-0.0012076,-0.015438,-0.019862
0.092535,0.14751,0.118,0.022418,0.044539,0.11691,0.10929,0.011862,0.069678,0.066122,-0.094077,-0.15634,-0.12397,0.0055381,0.14915,0.13394,0.14616,-0.11866,-0.13607,-0.027578,-0.101,-0.10966,-0.080918,-0.012399,-0.027622,-0.10312
-0.062757,-0.18331,-0.18493,-0.070857,0.027995,0.060549,0.010718,-0.014113,-0.12299,-0.15156,-0.22738,-0.1099,0.04108,0.12115,0.13611,0.10797,0.026627,0.012425,-0.084559,-0.073784,0.044933,0.1573,0.21327,0.2296,0.11511,0.12779
0.080332,-0.041434,-0.08377,-0.099661,0.030879,0.17527,0.12183,0.013305,-0.018238,-0.028648,-0.088919,-0.10598,0.027864,0.19428,0.085889,-0.10141,-0.070807,-0.052033,-0.028915,-0.011415,0.060184,0.17167,0.02492,-0.060226,-0.074152,0.085036
-0.13303,0.14677,0.0715,-0.06659,-0.088472,-0.086814,-0.10068,-0.031918,0.072877,0.30825,0.17415,-0.012066,-0.0037308,0.00036003,-0.014154,-0.00071978,0.18742,-0.018743,-0.066339,-0.14724,-0.091063,-0.084154,-0.099489,-0.12193,-0.062845,-0.24237
-0.12369,0.1116,0.093533,-0.13134,-0.2899,-0.22867,-0.086065,-0.014443,0.029402,0.067632,0.095881,-0.065805,-0.13356,0.11065,0.17865,0.032926,-0.035775,-0.064799,0.052335,0.03258,0.1569,0.20527,0.16225,-0.062765,-0.13116,0.0040191
-0.01035,-0.061725,-0.096877,-0.076742,-0.056831,-0.0052398,-0.033425,-0.098751,-0.068767,-0.13587,-0.14779,-0.081646,0.026009,0.049227,0.037603,-0.010007,-0.082982,0.14907,0.12482,0.12126,0.096114,0.031115,0.050629,0.087404,0.13305,0.15059
-0.0054077,-0.0044309,0.090459,0.059102,0.055135,0.017653,-0.041969,-0.13164,-0.082398,0.049732,0.1225,0.02275,0.047956,0.06177,-0.043413,-0.15941,-0.1827,0.066347,0.077646,0.054162,0.064933,0.077455,-0.040784,-0.10061,-0.0973,0.047615
0.072736,0.01312,-0.11056,-0.099777,-0.044115,0.020637,0.067101,0.037747,0.061279,-0.12754,-0.23417,-0.21857,-0.16482,-0.074528,0.031705,0.053035,0.030659,-0.15857,-0.21703,-0.24443,-0.16234,-0.07628,0.040086,0.072784,0.064452,-0.13189
-0.18521,0.0014437,0.011038,-0.0017062,-0.14438,-0.25169,-0.22357,-0.16405,-0.086501,0.048007,0.12482,0.10712,0.047293,-0.071687,-0.044322,0.038806,0.069851,-0.037703,-0.039246,0.0079174,0.0099286,0.066107,0.057678,0.058793,0.011373,-0.010813
-0.033027,-0.00015584,0.019063,0.0040951,-0.016613,0.0017124,-0.024459,-0.01693,-0.03754,-0.012205,-0.015608,-0.017969,0.0055869,-0.0041268,0.014107,0.01883,-0.009836,-0.03064,0.020325,-0.070237,-0.0045544,-0.00010947,0.010717,0.036963,-0.0083165,-0.015094
0.053908,0.072058,0.016052,0.051048,0.075015,-0.13076,-0.15851,-0.039408,0.10928,0.054595,-0.058298,0.03818,0.02142,-0.22477,-0.2958,-0.19162,0.087676,0.109,0.1228,0.10912,0.011598,-0.1956,-0.22607,-0.17491,0.025393,-0.026718
0.23634,0.13619,0.13029,0.092707,0.047028,0.01311,0.11732,0.16428,0.15951,-0.11532,-0.05411,0.014812,-0.045022,-0.039863,0.044019,0.012308,-0.040514,-0.13498,-0.072528,-0.026508,-0.024501,-0.015594,-0.01343,-0.036704,-0.10723,-0.049444
-0.066366,-0.059641,-0.031619,-0.0048331,-0.044814,-0.070632,-0.02953,-0.034287,-0.11337,-0.12885,-0.025879,-0.060662,-0.06598,-0.01855,0.12285,0.13599,-0.10475,-0.081485,-0.10885,-0.064072,0.016538,0.1298,0.18895,0.20685,-0.039734,0.082708
-0.16559,-0.11709,-0.13286,-0.10246,-0.072391,0.0041153,-0.015889,-0.12843,-0.14996,0.17581,0.14393,0.050291,0.011526,0.025019,0.017918,0.018056,0.10064,0.12154,0.11574,0.01945,-0.057869,-0.070011,-0.036217,0.028221,0.11383,-0.096548
-0.032257,0.0089924,0.030309,0.0055702,-0.032144,-0.065359,-0.05474,0.039965,-0.010891,-0.061258,-0.02134,0.047922,0.0347,-0.067381,-0.020987,-0.030407,0.0080484,-0.0047587,-0.024712,0.018008,0.043487,0.017061,0.0080647,0.025187,-0.010076,0.022317
-0.036748,-0.079791,-0.069634,0.10017,0.16142,0.13667,0.021789,-0.11249,-0.11115,-0.12856,-0.072372,0.15481,0.055772,0.036077,0.055163,-0.13789,-0.14137,-0.074086,0.013733,0.083689,0.045235,0.042486,0.078249,-0.019962,-0.068692,0.077052
0.053588,0.088932,0.049415,0.031505,0.036867,0.0059979,-0.01879,0.024937,0.045141,0.056214,0.014834,0.0060336,0.035906,-0.024325,-0.068346,0.012286,-0.019516,-0.0124,-0.016535,-0.0060224,-0.0028982,0.011501,-0.048258,-0.040295,0.012679,-0.014926
0.051677,0.28815,0.089678,0.0011902,0.02301,-0.029868,-0.18981,-0.13225,0.16066,0.27861,-0.0079302,-0.1315,0.016853,0.015747,-0.23926,-0.14942,0.27095,0.13434,-0.090376,-0.16403,-0.086999,-0.038947,-0.055335,-0.002087,0.16111,-0.053325
-0.03809,-0.016132,-0.038735,-0.037278,0.016779,0.012522,0.0025172,-0.0088037,-0.0071672,0.027149,0.0089012,0.0088992,0.067817,0.070113,0.0097124,0.051653,0.042578,0.069553,0.053566,-0.026594,0.019157,0.012718,0.042013,0.034345,0.057874,-0.0016634
-0.011695,-0.053722,0.020787,0.044759,0.049089,-0.05971,-0.13102,-0.13096,-0.14599,-0.091525,-0.15467,-0.13481,-0.032813,-0.010824,0.024947,0.063752,0.0022337,0.11028,-0.056585,-0.052403,0.046515,0.15623,0.27969,0.303,0.26129,0.2403
0.094593,0.12261,0.098069,0.098155,0.060378,-0.004539,-0.053352,-0.0022195,0.088276,0.19276,0.10404,0.0070298,-0.029861,-0.15411,-0.21293,-0.083394,0.1228,0.10192,0.03452,-0.060437,-0.14136,-0.2212,-0.23018,-0.085738,0.066944,-0.061457
0.0098295,0.0033994,0.023273,0.0064084,-0.0044064,0.01595,0.035848,-0.055123,-0.0020319,-0.037837,0.047509,0.0029819,0.0051765,0.10168,0.040404,-0.06308,-0.048014,-0.024686,0.029065,0.038281,0.079223,0.14826,0.027351,-0.087152,-0.08717,0.018559
0.12211,0.15954,0.098742,0.071341,-0.010778,-0.0035264,0.0052151,0.046437,0.14772,-0.065262,-0.12059,-0.044702,0.027412,0.047457,-0.0086502,-0.0059165,-0.0020177,-0.2327,-0.19348,-0.046815,0.11948,0.11605,0.03799,-0.047063,-0.12739,-0.040643
-0.012385,0.039408,0.066976,0.024603,-0.034663,-0.085236,-0.064954,-0.058028,-0.030052,0.064838,0.13327,0.017205,-0.063386,0.012127,0.023823,0.014581,0.074988,0.07504,0.016155,0.0025738,-0.073061,-0.039452,0.036742,0.022938,0.01743,-0.035029
-0.1246,-0.040089,0.028822,-0.016791,0.011493,-0.040283,-0.19712,-0.2898,-0.1792,0.057176,0.12991,0.1197,0.11885,0.070473,-0.14344,-0.28453,-0.1501,0.1125,0.17089,0.23325,0.20362,0.14329,0.034036,-0.071644,-0.0032593,0.15297
-0.02119,0.0045607,-0.035048,-0.017735,-0.012808,-0.045698,-0.013908,0.025649,0.024028,0.019148,-0.041435,0.018106,0.0041817,-0.039142,-0.041057,0.012766,0.029985,-0.006553,-0.015672,0.0090728,-0.013585,-0.015171,-0.0093245,0.024957,0.030307,0.023392
0.056889,0.0055572,0.036042,0.060378,0.055262,0.069114,0.057359,0.066846,0.025578,0.046162,0.031219,-0.01958,0.048152,0.026179,0.037398,0.025415,0.017523,0.029051,0.028539,0.00035009,-0.0022008,0.035846,0.0074773,-0.015057,0.0072447,0.0080422
0.077032,0.042566,0.11915,0.10277,0.054551,-0.076856,-0.16417,-0.099058,-0.05404,-0.048545,-0.027914,0.020515,-0.13913,-0.27051,-0.19229,-0.021827,-0.031306,0.033037,0.01534,0.019747,-0.03989,-0.012902,0.15515,0.24679,0.15112,0.25706
-0.053565,0.058153,0.12063,0.076912,-0.065845,-0.087841,-0.11054,-0.15438,-0.065411,0.26381,0.24975,0.077958,-0.1278,-0.16868,-0.12629,-0.05293,0.050455,0.26765,0.17497,-0.039261,-0.18739,-0.16065,-0.098177,0.03187,0.15742,0.014094
-0.042399,0.0044417,-0.015934,0.030149,0.02619,-0.024399,-0.038723,-0.028301,0.0007503,0.057781,0.046358,0.0095405,0.043398,0.051173,-0.010412,0.0024258,0.018918,0.010326,0.0052732,0.026401,0.028136,0.034388,-0.051695,-0.020022,0.002291,-0.0022355
-0.06865,0.096037,0.14163,0.0019801,-0.1653,-0.15539,-0.11941,-0.012398,0.035909,0.17219,0.18657,0.041639,-0.19203,-0.19733,-0.088966,0.036357,0.053657,0.15228,0.14304,-0.0035795,-0.17221,-0.16284,-0.071705,0.058733,0.1037,0.021616
0.046301,0.12402,0.17301,0.11105,0.051881,0.042758,-0.00027127,-0.04763,-0.025872,0.03075,0.070966,0.099632,0.099481,0.098,-0.010931,-0.11522,-0.077694,-0.096994,-0.066473,-0.041606,0.0037523,0.013221,-0.11329,-0.1813,-0.18773,-0.12063
-0.023107,0.012788,-0.036515,-0.0081374,-0.0021222,0.020421,-0.0074066,-0.041101,-0.058939,-0.0041105,0.0061133,0.0073376,0.031438,0.023718,0.00091182,-0.052651,-0.011078,0.010758,0.014698,-0.018121,0.0016493,0.0091175,-0.042024,-0.045478,-0.0094315,-0.030871
-0.047992,-0.055762,-0.0088276,-0.013045,-0.042055,-0.04316,-0.044796,0.024654,0.025706,0.0051311,0.018618,0.019559,-0.031289,-0.069592,0.036076,-0.011746,0.020692,-0.005611,-0.0050652,0.00067499,-0.018389,-0.020796,0.0074804,-0.031311,0.0049011,-0.024015
0.030048,0.21127,0.27295,0.092332,-0.15406,-0.27867,-0.17535,-0.0073729,0.11946,0.10363,0.13107,-0.021347,-0.19982,-0.12561,-0.025122,0.05723,0.036839,-0.0091958,0.0039648,-0.060522,-0.052081,0.019781,0.10766,0.10234,0.06617,0.047594
0.059576,-0.062962,0.0054795,0.011248,0.052341,0.0379,0.02468,-0.010298,-0.011387,-0.034527,-0.0080467,0.01503,0.0028871,-0.0407,-0.064482,-0.041332,-0.025393,0.083133,0.061392,0.037887,-0.028232,-0.072492,-0.12086,-0.090899,0.013647,0.0092084
-0.018939,0.014383,0.013711,0.010128,-0.018563,0.0088811,0.03378,0.025781,0.033541,-0.031835,-0.0068054,0.024737,-0.036818,-0.050867,0.0086944,0.025041,-0.01278,0.0078386,0.0020429,0.011076,0.017864,0.0061914,0.024596,0.039325,-0.026643,0.010413
0.031776,-0.0039893,-0.056698,0.00042624,-0.037058,-0.026382,-0.023513,0.018676,0.018718,-0.020185,-0.04424,-0.036797,0.019235,-0.05396,-0.019995,0.01664,0.014659,0.00089355,0.018819,0.015548,0.015888,0.0034118,0.017398,0.042807,0.035336,0.030577
0.0059453,-0.035426,-0.011247,0.02937,0.033014,-0.010928,-0.013178,0.0060148,0.0036206,-0.070626,-0.045307,-0.00074403,0.064049,-0.01226,-0.038609,-0.00083637,0.02863,-0.014695,-0.04892,-0.052651,-0.0035009,-0.048018,-0.023225,-0.013212,0.024419,-0.025396
-0.12241,-0.13206,-0.019673,0.036351,-0.014447,0.0056654,-0.026323,-0.11492,-0.1747,0.066324,0.18164,0.071647,-0.012728,0.025739,0.06071,-0.030885,-0.056455,0.18792,0.16258,0.00086321,-0.13138,-0.1408,-0.023063,0.023753,0.090594,-0.039937
0.012127,0.045037,0.012653,-0.017665,-0.066937,-0.036232,-0.02414,0.010691,0.059799,0.13094,0.016524,-0.030703,-0.034624,-0.034638,-0.04623,-0.033854,0.036881,-0.0095356,0.018912,-0.050003,-0.014497,-0.026612,-0.043194,-0.042188,0.015749,-0.045491
-0.030151,0.030599,0.032948,0.005015,-0.043495,-0.014779,-0.039269,-0.039574,0.02642,0.025416,0.009762,-0.012977,-0.042804,-0.018268,0.0087381,0.017949,0.023157,0.044194,-0.0045892,-0.038892,-0.045066,-0.0056952,0.012988,0.046466,0.039235,0.025818
0.030422,0.0093607,0.019424,0.089641,0.063531,0.0052769,-0.010635,-0.046971,-0.0029886,0.036654,-0.06122,-0.015233,0.05574,0.032453,-0.0097546,0.011488,0.047216,0.0017392,-0.070232,-0.069355,-0.033379,-0.034513,-0.01338,0.042832,0.055299,0.00090406
-0.063654,-0.052521,-0.023433,-0.076766,-0.064993,-0.032186,0.037405,-0.0052895,-0.03741,-0.0091547,0.016711,0.010852,0.053784,0.047916,0.11645,0.073225,-0.0069111,-0.00042727,0.034765,0.07362,0.03754,0.0041875,0.079248,0.071229,0.019097,0.032003
-0.016817,0.019411,0.010014,0.038331,0.059127,0.052448,0.022123,0.0093874,0.040736,0.0076557,-0.0048112,0.054903,0.07672,0.0054827,-0.018672,0.028682,0.063828,0.033771,-0.0073519,0.027631,0.031794,0.031841,-0.018821,0.030837,0.050439,0.026541
0.016874,-0.1125,-0.060699,0.021644,0.14369,0.17114,0.12029,0.030062,-0.082827,-0.13111,-0.070046,0.072783,0.16861,0.14718,-0.0050577,-0.030024,-0.090708,-0.052099,-0.066912,0.015957,0.022319,-0.00056698,-0.035261,-0.049078,-0.046425,-0.027799
-0.00037519,0.066586,0.04596,0.034432,-0.050627,-0.03243,0.0032253,-0.021282,0.060385,0.0020395,0.051993,0.030716,0.017677,0.016566,0.0071142,0.030589,0.041227,0.001055,0.026876,0.062323,0.0097901,0.033053,0.040792,0.0041411,0.0032101,0.049885
0.040139,-0.096889,-0.02371,0.0073772,0.065974,0.016172,0.062574,0.052798,-0.0020307,-0.027322,-0.069714,-0.024917,0.0038543,-0.042239,0.019854,0.034052,-0.074876,0.010507,0.020913,0.041253,0.0035073,-0.0068501,0.0016736,0.013811,0.026448,0.023122
0.01817,-0.038684,-0.0087915,-0.006259,-0.0060085,-0.011487,0.035688,0.078822,0.039138,-0.057007,-0.053861,-0.0022353,-0.028869,-0.05344,0.0074499,0.033126,0.0042387,-0.066069,-0.02571,0.0017415,0.0075353,-0.023996,-0.017783,-0.02999,-0.043582,-0.018695
-0.015022,0.0084729,-0.022218,-0.0236,0.019778,0.0073089,-0.013478,-0.036182,-0.018489,0.026762,0.053395,0.0065259,0.009797,-0.013853,-0.0091355,0.0047466,0.0078362,0.044994,0.025721,0.029781,-0.054336,-0.050369,-0.02302,0.0092809,0.010704,0.0097485
-0.17254,-0.083786,-0.085626,-0.058823,-0.048012,-0.015683,-0.042474,-0.088587,-0.12838,-0.037884,-0.019588,0.052193,0.14938,0.25748,0.19884,0.071729,-0.0041469,-0.040724,-0.060217,-0.038225,0.014433,0.096063,0.068814,-0.0026447,-0.0559,-0.087684
0.11976,-0.037308,0.0058698,0.067012,0.099414,0.19821,0.2353,0.14558,-0.019529,-0.15458,-0.091767,-0.049069,-0.093012,0.031914,0.16675,0.15072,-0.0295,-0.098927,-0.16,-0.234,-0.21964,-0.13732,-0.029471,0.014348,-0.060238,-0.18394
